1 100
<unk> 0.00357857009522 -0.0331223588947 0.0504601169915 -0.048686092515 -0.0260324357001 0.0364811522512 -0.0562889228836 0.0309794839552 -0.00996858021574 0.0355372603084 0.040617669313 0.011259152458 0.00315915025493 0.0565739575641 0.0120206620631 0.0475402595184 -0.0182044836525 -0.0144511568425 -0.0474272251761 0.0530700765709 -0.0162454027901 -0.0433924852782 -0.0382073169854 0.0498828759286 -0.0597883327421 -0.0011761106997 -0.0183890322799 0.0260021007197 -0.0473730883469 -0.0439880475776 0.038108599915 -0.0288418093941 -0.0534258092483 0.0583051970405 -0.052057047429 -0.0458056307202 -0.0364562442452 0.000899428935206 0.0347002496799 -0.0271124445511 -0.046437529156 -0.0498230367764 -0.0118459470202 -0.0155374284584 0.0467758122027 -0.0278778690621 -0.0135995548432 0.00358693363004 -0.0330825881288 0.0165311080055 0.0441398026395 0.0411537203234 0.0380872492356 0.0340892525177 0.0107239016104 -0.0126096004442 0.0569661829259 0.0374185339672 -0.0112289097976 0.0203939248569 0.000131677044087 0.026658307506 0.0421429358292 -0.0346437073989 -0.0348196795405 0.0373486324987 -0.0271042659937 0.039356743646 -0.0421466057144 0.0519987738571 0.0384725736935 0.0447843276851 -0.0422840394996 -0.0132685580958 -0.00657961476429 0.00719940293923 -0.0614489449451 0.0593264144451 -0.0557261256681 -0.012772061204 0.00841878862559 0.0326383454758 -0.0514561034677 -0.00439625484119 0.0115896500836 -0.00554013214349 -0.0338520052773 -0.0560554463917 -0.0292199861813 0.0523174403528 0.00196012935185 0.0422343894714 0.0223631824829 -0.0375832707891 0.026583251516 0.0501925911175 0.029382710897 0.0542562290749 0.0199018840766 -0.044948433461
